797,-1298,2837,1868,2091,1363,4863,3948,-4141,-3209,-10143,-2021,-11793,-6865,-10809,1433,-1385,4011,-1451,-7333,-4372,-3939,-3325,629,3278,-3046,6735,2315,8634,-1138,7027,-3996,4796,625,924,1894,-2346,-3121,7575,2555,11857,-2942,-5543,-6765,3701,688,3967,-3987,4947,-1220,
-3370,-2334,3910,-1723,2024,-4975,5672,5952,6093,-3314,-1901,-7095,-529,-1557,9240,2747,-7487,-6895,1710,-5994,-7460,-1327,-1349,-8267,-1329,-8748,2537,1748,-96,10614,-5263,2698,-7875,-6899,6595,5956,-8,1874,2673,-10149,-304,-134,8988,504,6674,1462,392,11610,-4965,-1855,
-4599,-4054,2310,-2934,2120,-3852,1816,5651,-5872,-4879,3527,-878,93,-475,7526,5818,-4694,-1201,2954,-2286,-4173,4032,-734,-4828,-1286,-4029,-208,-169,1955,5377,-1797,3638,-2351,-5218,1732,1386,4162,-1206,-234,-2762,4093,-1705,4167,-3298,2376,1888,3175,6198,3103,58,
6407,1369,-6940,457,7625,-5543,1128,-2698,3245,-598,-3957,-1555,-2221,-1188,-2490,-8515,-2637,-747,1469,-1825,-5065,-8866,9,2728,-1390,3922,-479,-405,-1471,-2258,2383,-6316,4625,-4318,-474,177,-2713,1924,-2257,927,-194,2790,-8312,-1261,226,550,-4486,-5404,-1968,1490,
-4194,-761,4512,-4231,-673,-816,-3620,-1415,-4636,5291,973,-2713,503,-71,-529,4025,-2827,4879,2168,1596,-2265,393,-1729,2347,7496,2638,-1740,1183,2368,5565,-1950,-2074,1930,2678,-1142,-4,447,-587,355,714,651,-2822,-1212,1545,-4604,1482,5324,1316,2841,1204,
-79,9325,-348,-718,-3835,3412,-10342,-3014,2624,2812,1116,10817,7119,-121,3644,-755,12917,-4879,-1699,-1295,3842,5228,-4788,2657,-6963,5483,-4987,1658,-7490,-460,-3656,3990,-3132,1676,300,-3107,74,6407,-1620,-256,-6123,7254,2823,4336,-12056,-2875,2556,120,-5663,999,
-605,-2175,4452,-1219,-6520,3374,10667,3741,-7143,-7837,3142,-8429,-6113,-2182,8451,3015,-3858,-6791,-4046,711,1357,4600,4015,-1732,4674,-13254,6106,-1930,3935,1993,-6835,9570,-8071,-4005,-2724,-7052,1099,4266,597,-6305,8290,-10755,12542,-6954,10865,-1196,-9295,4843,-347,-2014,
799,-12108,-3765,1298,7572,-8269,2335,3689,-8467,-3598,-1757,-3913,-7381,553,-601,-3926,-11544,-2204,3958,-7641,-7654,2291,10328,3922,2990,-3025,6130,-5906,263,2767,2689,-10567,-1106,-348,1353,12561,-2817,-4175,2259,-4169,4103,5968,-5427,-6478,5058,-2596,1133,3092,3699,-713,
-1071,5054,-5827,-899,2860,-211,-447,-2227,2213,2040,436,4246,1883,2896,1414,-3482,6014,-3617,1418,1040,3455,1215,928,2209,-5164,1284,-4595,-822,-3796,249,-208,-1943,-404,-1687,-1190,-3526,-1119,-2630,-8607,1971,-6166,4079,-3934,1616,-1490,-1176,-728,722,-1403,1318,
-1840,-2670,6503,-507,-5737,-519,-7946,2059,643,3919,10473,-1983,4199,6673,1240,6307,-6369,9991,1078,3624,-4316,-7695,-446,-10911,2952,5312,1467,-1213,5483,5452,-3737,5822,1077,-1216,3933,-566,8946,1234,4251,-453,-2232,-1850,7565,3973,-9491,9364,8181,4274,-995,2898,
-119,10575,2673,-18730,-5434,-3901,-5011,-5366,-2240,1306,1352,-5548,959,6158,2021,13073,5442,3346,-305,13249,-6743,-3994,-21394,292,5188,7343,-15542,16647,4437,7322,-23161,14109,-4783,-2792,2928,-15509,5471,1702,-16098,3534,-14954,-7717,5832,-1751,-6796,5204,6281,-1386,-1751,2578,
2211,-7233,-1904,8176,-766,1084,-598,800,-413,-2260,4567,-4130,-1077,3120,222,-1633,-7665,1227,-800,-4312,-2462,-3716,8345,-2799,1215,-122,9077,-3898,-1356,1097,4260,-1495,-832,-2181,1844,7011,5233,1503,10396,-1731,3843,916,735,-2305,-757,2911,-273,-415,-2917,2029,
-3479,-502,845,3635,-3921,9902,-738,-2402,3219,3409,993,3393,6005,-275,3815,-1585,6171,-2592,-4397,6065,13129,5787,10186,1053,-1400,-2714,2161,-7610,-7956,-1142,6561,4550,-983,5854,-6814,-273,-1461,3176,-6759,-501,-1156,2151,-82,4877,-25,-2458,-1413,2377,-1431,-1196,
-5914,3790,4106,4507,-342,-5076,-5544,1928,-10948,-1485,339,8263,1984,-3164,8719,-4660,-2376,-7410,5790,-10302,-8317,10532,1087,3740,-6607,873,2836,-386,-5307,8547,-4870,-9307,-5429,-625,7489,8073,-1042,2651,11060,-4881,531,10272,6832,-2686,-8400,-2362,11776,8182,4397,3392,
-3916,4320,-1156,-4191,7813,-485,3233,-988,-1461,5127,-3047,-1950,-698,-2221,1336,1147,-1977,3797,-2583,3435,4265,3570,4211,506,7966,-7050,1324,-195,-2884,3736,6248,-2180,10043,3454,-6871,-4439,-4666,-55,-11801,-3605,1784,-1961,-7610,5190,2112,-170,-1621,1777,5175,-583,
-4007,-971,4643,-4107,-4903,2063,1243,-1041,-5789,2871,-337,-5198,-764,190,-530,5059,-3447,4601,-983,2026,-639,-679,-1994,1961,8789,-540,-952,1951,4576,6040,-2385,326,486,4326,-1591,-3172,51,-114,-3972,-1138,2409,-5463,1951,-96,1067,2257,1846,2412,3990,722,
3184,-2484,-3423,2101,-824,1694,3951,2025,-28,-2955,-1727,273,-2106,-2666,-1002,-1358,347,-2866,-2330,-3126,2456,686,3175,1902,-511,-780,3842,-4004,711,-1667,355,461,-966,329,-2845,554,-2533,-1026,635,2325,2779,-2411,-1779,-1930,4645,-3518,-5081,-2676,-581,-3007,
4164,150,-5714,3612,-799,665,6127,-2665,-6665,-4887,-6641,-3116,-5298,-2008,-1472,-6519,2018,-12105,-5742,-1957,4224,5177,8467,10505,2283,-5613,4911,-3314,-5094,-1795,-835,-1232,-4974,2803,-8388,-1933,-5448,1173,-4801,1406,2071,551,-953,-6186,7908,-8370,-8492,-5986,-275,-2327,
-869,-81,4233,-6592,-2729,3021,6362,4775,-8181,-3724,-180,-7552,-1104,-3300,541,11193,-816,3809,-2830,5268,1759,-3086,-8753,-3691,9724,-6261,-2142,5707,7293,65,-3933,7223,3287,-916,-2876,-9438,1393,-813,-4088,1380,8344,-7688,285,-3917,6852,2593,-1359,52,2787,-1051,
918,-3949,536,-1231,5504,452,-1003,2544,472,-1092,4304,554,-665,1560,-1791,1084,-1719,5081,62,132,-732,-4390,2032,-4601,-272,-1138,1579,-739,4250,-2303,3906,2807,5318,3428,-826,-978,2850,-512,-57,-1701,2089,-22,-4035,457,-1529,2586,1102,17,383,-1229,
3567,-3531,-5795,2131,1780,822,1414,2947,-3669,-6131,103,1960,-4328,6400,-6323,-4272,-3619,57,3827,-333,1159,-1847,2861,274,-1767,903,-3637,-2322,2123,-6909,1508,-689,3662,707,4170,4065,-760,-5335,2332,4730,-151,-457,-7043,-6416,764,-1107,-2114,-2897,5856,-2316,
1872,-6513,-5981,-3961,48,-7427,-10554,-6597,-2419,7394,14009,-11998,1458,15587,279,-5443,-16890,12872,5869,10257,-7292,-9873,5282,-1566,14195,9380,-4237,-1403,6806,6681,-8288,3944,1397,6102,-2657,1548,5617,2284,-3874,4076,-15820,-2084,-1289,1139,-10019,5403,4646,-4374,3726,6188,
-780,17,4469,6474,-3592,11563,-2529,-117,6022,974,9,7933,5722,-6593,-808,3337,11660,53,-10681,-2844,11575,952,3563,-4223,-4399,-2769,5411,-3629,-5587,-5032,8593,9307,883,607,-2853,-2708,1654,6511,888,-2545,5390,3128,2710,2800,-3056,415,-1315,-593,-8324,-4236,
3375,3379,-1153,-2762,32,-5296,386,3833,-5660,-8961,-3766,4365,-4094,-83,-3810,3508,3371,-4698,4364,-1841,-6340,-1207,-8832,-3419,-6221,2455,-3715,3512,4101,-5384,-6600,1556,-1117,-2299,5014,-1416,-1933,-3932,948,2453,-157,784,77,-5128,1722,-656,734,-1662,6041,641,
-2497,4711,3700,-3467,1889,-145,-1449,2710,-4702,4299,-3801,647,-4844,-4204,-5969,243,-1435,5329,5114,-3949,-3542,733,-6076,2329,4720,-341,1792,2064,3334,4372,3104,-7478,6952,4961,2089,3589,-2005,862,5462,1976,5361,3266,-5033,-1892,-2427,1341,4453,1047,6410,1571,
1000,-1527,6817,-6655,-3410,2101,-22,6915,-6878,-8297,-6197,-748,-3055,-6728,-2167,15301,2197,6609,690,2585,-6910,-6342,-6524,-5050,2931,1352,-1507,3869,12716,-3768,-6654,7776,4985,-498,3433,-4543,2272,-962,1083,4429,8275,-7224,2026,-6881,68,3991,5177,-2903,4140,-609,
-5000,-149,3161,-8203,3573,-354,3269,2545,-4179,1087,-4716,558,-510,-4054,2573,4207,794,428,1676,-543,1868,6419,794,1603,4133,-5168,-800,-1917,-354,4807,3379,-2222,4301,2765,-4192,1856,-3427,-1634,-3048,-2072,4398,316,-2854,444,3865,-1305,2866,2991,5279,716,
-793,5512,1897,-4285,3189,3612,-2954,2980,2951,5865,-3137,5770,101,-4436,-7564,3588,6258,9190,-1203,1641,1993,-5371,-4401,-4349,-1237,3669,-1899,-279,3900,-1038,5922,1135,8649,5215,1498,-5666,54,-2394,-3025,3654,2491,-653,-6226,5402,-4551,4988,4389,-982,4156,487,
-1851,-326,2777,165,-6686,-4223,-4038,-1625,1160,2062,5801,-3696,1068,5897,1344,4601,-5329,3085,811,421,-6654,-1556,-3181,-1184,762,5370,1340,4391,1195,5840,-9118,3738,-5810,-3102,4263,2358,6292,5376,4658,-4066,-5803,-2758,7819,-315,-1024,3698,2263,2370,-3385,4541,
2600,2043,1046,-8157,-2936,227,-4825,-5740,-7502,-143,4866,-7200,-1698,3816,-5540,5940,-2182,7145,1632,12224,-972,-4210,-7778,2837,11968,7209,-3832,3993,6490,-1334,-6511,6441,4142,3537,-3071,-11262,5140,-1955,-3263,9423,-1359,-9163,-4776,-2512,-6278,3135,3833,-9576,4178,1128,
6664,-5354,-4496,9883,2629,-281,8495,818,5896,-167,-6165,-6478,-3921,-2158,-6180,-2561,-7681,3990,-5033,-3773,-2772,-12459,4639,-3012,644,-4648,10547,421,2132,-1891,5655,-2438,3588,-3221,-602,3645,-2005,-1013,5341,-315,5616,-4544,-3313,-1411,8648,3214,-4726,-7167,-2291,-1503,
1490,-5,-199,2371,-2833,229,3385,1600,-2117,-6039,-5169,954,-2275,-2605,1186,238,-677,-6937,1968,-3180,-1215,3471,980,1750,-2781,-4846,1480,-229,-1240,-2156,-1545,-3148,-4949,-2030,2282,4945,-2072,-1158,4241,-2607,4744,1562,3889,-6264,2286,-2974,-1782,-929,-3133,1681,
3022,-1921,-894,5621,542,1494,925,3060,-218,-5383,-1661,909,-5197,-1669,-3476,2117,1905,716,-2470,-3794,-2564,-3575,-2255,-3572,-3457,-395,1766,2777,2405,-4905,428,-244,1343,-2874,2770,-1545,707,-2209,1769,2408,5318,-1797,-739,-4110,943,1484,352,-2237,-2276,-20,
2699,-2348,2360,-2983,-1348,-6640,-5004,1503,-2705,607,854,-6715,-3740,3069,-1824,6796,-7187,6614,4530,1325,-11108,-6927,-4701,-235,4918,7615,-2056,4576,6473,9095,-8776,-185,-2106,-1694,3744,2934,6007,-558,2018,2633,-6718,-1857,4339,-5425,-4252,7406,9405,-915,-57,2506,
842,4113,-56,-382,-159,1630,1215,3423,777,-3919,-1358,3315,-1502,-1578,-368,527,3222,646,-331,-988,806,-1557,-3477,-3073,-3677,-638,-458,1008,1662,-2974,-2106,1983,953,-84,2462,-3553,1552,160,-1357,881,1825,1270,1910,-1468,-264,2342,-314,-35,92,-1051,
5578,7832,-4441,-10672,5853,-3344,5794,704,-5097,-1504,-2664,-10915,-7081,-36,-2378,5082,-1450,61,1934,5009,-4593,-2154,-9239,2219,9277,-3528,-10054,8617,962,6223,-4131,2461,670,-1104,-1414,-9467,-3578,-2298,-12279,1145,-1642,92,-3489,-5817,7747,537,-1291,-1702,5967,2601,
3940,4715,-4793,6638,3062,6387,-1626,8719,4273,-5392,1527,11664,3216,1165,-4623,-2984,7302,3653,-5201,-1337,3030,-6574,4770,-9580,-13030,1328,3885,-2828,-485,-8744,5471,3916,5570,-1074,5713,-3590,5919,1273,-1491,2125,1667,5015,-2260,-462,-1636,5670,-1233,-2185,-3360,2844,
962,5236,-3268,-1648,4967,-4634,-4847,-1911,2364,412,-4246,8626,-961,-585,-3429,-5371,4460,191,5842,637,-2092,-1631,-2515,1966,-6888,4914,-3916,2023,-4563,-6277,683,-6603,3868,3460,3120,2157,-5316,-1970,-908,2572,-2360,6790,-8387,1883,-5694,-1290,2521,-1142,977,875,
3896,4316,-4974,4318,3578,5232,-799,7297,3134,-6176,442,9420,1922,1108,-3546,-2514,6663,1803,-4741,-420,2773,-5283,3901,-7747,-11375,148,3086,-2065,-120,-8944,3917,4890,4689,-1076,3496,-4073,4604,1607,-3044,2333,1626,3432,-2257,-1868,-994,4139,-2435,-3131,-3065,3002,
-139,7925,1038,-2400,-2819,2898,1326,1814,-5169,-4176,-4004,5878,-913,-3410,2787,5973,8883,-4243,221,-1439,1389,2207,-8721,2730,-4319,-423,-5446,5404,1025,-1745,-5249,2027,779,-582,2929,-7413,-1370,-2122,-1743,1715,3004,160,2095,-4689,424,-1800,223,360,4557,2080,
-336,4558,-2932,-1040,-112,2655,7087,708,-791,-6322,-7443,9158,-3017,-1267,1940,2309,12730,-13726,-1448,-1810,9156,8500,-1101,2240,-9370,-7665,-3158,65,-3066,-6814,-823,5380,-4579,325,-2884,-2552,-5486,-1410,-4255,-837,1273,760,3850,-2522,6835,-7348,-4352,724,606,-952,
590,5139,-716,-7873,-5046,6129,1870,1020,-2195,-7304,-2842,7865,-2578,-1054,-1797,8013,9014,-5716,1294,4317,7731,6087,-7961,2193,-5839,136,-7236,2050,3816,-11569,-2785,6694,-2872,3245,-590,-9241,-1614,-4552,-7968,8011,-375,-738,2922,-3943,645,-3760,-3150,-4963,-207,-1709,
-2014,986,4093,-241,-3260,209,-560,1579,402,-754,885,1186,470,-1223,1378,3571,2795,-646,1088,-572,474,1842,-2454,-945,-1823,328,-2510,184,187,694,-2484,2678,-4424,169,-299,1346,1430,-758,2789,86,1143,1243,6170,1091,-681,83,1668,1106,-524,-907,
817,4906,-4617,-13670,5315,213,4163,-1375,5990,389,-1112,-374,-1047,3599,-4265,5365,5605,4252,3428,12150,5023,-7155,-12089,-4905,643,-1421,-11846,7191,7502,-6496,-1810,10001,4127,209,-311,-9427,972,-7188,-11561,5103,-5454,-10865,-4289,4054,3230,2776,-553,-5314,-1183,-2054,
3154,-2239,-10911,-4364,8717,-7992,2840,-3649,114,-5157,1695,-3808,-5543,11030,-1907,-7381,-5484,-5639,5227,7547,-1843,-5207,4679,2924,-1270,2055,-5644,-638,-2109,-5604,-3005,-2490,-1253,244,-1713,-720,-814,-5739,-8118,4556,-11118,550,-7377,-4877,5659,-3097,-7383,-3587,-3541,2135,
8762,3363,-7629,8907,-3572,-1553,-8661,-11981,7817,6657,8335,-8494,3388,7625,-6803,-9825,-8661,3972,-3964,7581,-6455,-12255,4222,4752,6938,12358,6179,1844,-5124,4753,-7945,-2040,-4303,-2194,-1281,-3937,8256,10323,-693,6152,-12495,2670,-1129,-391,-7533,2819,3556,-6873,-11315,5231,
300,-43,2434,2218,-4120,2998,1045,551,-4674,-5550,-48,2025,-811,-3618,4594,3372,1164,-3693,-1562,-827,2085,4846,-1810,335,-2023,-3374,1157,516,491,-1982,-573,3335,-2195,538,-840,-2401,-566,-143,2663,-1553,4174,966,5293,-4127,-336,-2013,-245,1592,290,-2238,
-88,-3477,6813,1,-1370,-1720,-282,5038,-1584,2493,-91,-3269,-3540,-2336,1744,2807,-2463,5986,1992,-2975,-7146,-3516,-4184,-5245,2052,-706,1121,2126,6412,6916,-3758,-397,3145,-2036,6127,1754,3056,-864,4605,-4192,3982,-2244,5753,-3059,-526,6323,6173,3648,3869,-1594,
-5035,-2314,7517,2220,-7036,-283,-8386,-2018,4498,8472,6785,-2937,7139,-769,3585,4378,-3718,9931,-5200,3140,-3431,-3463,1011,-4066,5270,4855,4369,308,-301,7152,-3624,3196,-1464,-2095,779,-2496,7556,7626,959,-4601,-2729,519,9399,6158,-9121,6467,5166,3769,-6170,4426,
666,3448,1821,9570,-17433,10475,-510,-2150,-3069,-3632,-7239,10152,836,-6017,1608,-3060,9780,-12946,-8907,-5469,7452,13783,3456,8934,-7906,1279,6622,-3020,-6006,-4679,-5444,1114,-9110,1387,-3580,161,-5392,4476,4921,2023,2390,1939,8214,-2259,2239,-8120,-5644,-1877,-537,454,
-3814,5869,3092,-1439,-1122,1561,-758,2270,-2654,-309,1517,-933,3769,-476,5206,4638,2478,717,-1774,2682,-549,1046,-4534,-3348,486,-3064,-1336,3335,-1248,1947,-4973,7420,-2297,-592,-605,-6956,3802,3434,-2261,-4020,-599,-721,4120,1494,-959,2543,941,3567,-1441,661,
1260,-2622,-4414,888,-2701,12,-11551,-2732,3795,-3341,1426,18726,7606,1985,-7100,-4046,8389,-4336,7441,-4441,699,2156,-2366,-2314,-17948,15342,-3356,-2713,2008,-16100,3587,-1226,-1927,759,5877,8738,2784,-951,7199,5896,-4043,6167,-6367,6821,-11307,-3813,5665,-7665,-10492,2831,
2130,7101,4364,106,-11377,3071,-680,494,-5409,-5632,-12859,5542,1049,-7865,2994,1525,11530,-10212,-5427,-3473,834,7612,-5678,8476,-3569,-672,1259,-1291,1659,-545,-5912,4048,-4630,1985,-2447,-4790,-5131,4992,1127,1374,2078,3614,9607,-3467,303,-6639,-156,-2247,198,-3271,
-1484,188,4950,6092,4274,1920,2780,5413,5827,5775,-2217,2298,3317,-4637,-2905,4575,456,11484,-5421,-3797,-355,-9264,2021,-8528,-1690,-6560,3569,-807,2001,2967,7271,-233,6691,-969,1163,273,610,-708,2118,-4369,6885,-576,155,6717,2932,7922,4275,4235,2964,-1801,
4026,-1880,-1348,8430,-5694,-1337,-2582,-4240,-4293,1422,-6499,-2416,-5764,-3002,-8915,-4086,-583,-6001,-4139,-3868,-827,5468,6939,11563,3494,8228,6606,-5166,-2717,732,-143,-9465,-111,7334,-9198,5277,-7822,-737,3440,6880,398,1589,-3253,-5898,-342,-5846,-2078,-6436,1310,-62,
2097,-804,-2771,1114,1284,1923,-2457,-2635,-4138,236,2747,-1595,-303,-677,-556,-3507,-2409,4269,-1935,2057,1842,-587,4484,1243,4682,1925,3891,-3210,2383,-2749,1520,2974,6180,4719,-5920,-2955,890,2378,-1753,4489,595,668,-4910,-759,-2541,886,-1032,-5127,4882,-710,
2764,-3868,-8469,-5092,13118,-9575,-5484,-2389,124,3959,8332,-8769,-3364,7543,-8434,-499,-4049,13563,6423,9474,-7064,-10687,-2078,-1146,10359,10215,-9359,4957,1163,1471,512,-3411,8964,1418,248,2202,7285,-6231,-5791,4661,-7788,-5444,-13292,794,-5641,7869,5281,-4613,298,2297,
1621,-2343,-2015,-1079,9,-1875,1605,-1311,-2251,596,59,-6325,-1668,3026,-2259,843,-4929,-504,1723,1806,-903,-1161,-1079,2576,7024,662,-717,-335,1369,675,-620,-1522,-429,174,-697,17,-1481,-3044,-236,1242,172,-3184,-2716,-2876,2263,-906,-960,-1050,2422,-136,
4177,2791,-4687,8232,-7426,8852,-5473,-6764,-1964,1276,-585,4940,441,-848,-12901,-7305,7059,2808,-8659,1331,10468,-1445,2501,6975,2374,10537,4012,-1537,-2110,-11849,7172,-3286,6696,6504,-5554,-5709,-1506,2240,-3592,11032,2689,2501,-5987,-869,-4609,-2087,-5066,-11653,1724,1283,
8071,-3116,-10085,2483,-1107,-3701,7488,-859,-5900,-7172,-3389,-4019,-6485,2841,490,-8659,-3698,-12918,-2607,-2378,-4856,2475,4832,9745,-2583,-1994,1722,-498,-1461,-2066,-8055,-3615,-9090,-6165,593,1010,-3464,-1319,-3776,4232,-3678,2093,-877,-13862,7684,-7567,-7816,-4248,-299,943,
8774,1949,-2902,-4265,-12754,4357,4182,2362,-8307,-11019,-541,3561,-7017,1165,1841,4686,7119,-10423,1306,1293,5017,9507,-7735,-267,-3495,-1976,-3536,2671,4517,-9108,-7517,9389,-9067,-597,1081,-6529,1097,-3243,346,5015,1416,-6168,6662,-12234,5208,-5029,-8566,-3940,495,-660,
-540,6517,3685,1763,-5893,5502,-2239,2402,-1862,-725,-4332,9407,846,-4654,811,2160,8991,-895,-1400,-2348,3566,5224,-4341,1922,-4975,789,-1966,150,-1563,-3787,1357,654,1514,2866,85,-1598,-1746,1479,1675,1054,3579,4291,2260,-473,-3481,-923,2864,-439,695,97,
1688,6351,-808,1407,-930,125,1969,1883,148,-2246,-5213,2813,-1138,-4187,405,2710,4704,-2016,-3267,-1333,-188,-1664,-2467,-1207,-5096,-1389,1679,2089,-1056,-1410,-285,1724,323,-748,-522,-3827,-770,819,-1055,-740,1905,177,1794,-717,2041,368,-2130,111,-470,-230,
1023,-10692,2330,-1777,-1563,-2931,-1372,-188,-6843,-1285,1769,-12792,-8263,303,-2522,3117,-10816,395,657,-3224,-4986,-1576,-1687,5334,12890,3998,-1020,1906,6167,6251,-5224,-4859,1449,3296,3330,1447,1828,-4120,4711,1950,2104,-4759,-2280,-8719,-158,-14,2723,-651,7443,-702,
790,-1321,1253,482,10434,-5367,6782,2966,-1501,3459,-7802,-7991,-2144,-6978,-2019,1496,-7582,5614,-2649,-2217,-7890,-6267,136,984,6276,-8265,1853,1248,-279,7902,3087,-10221,6647,-719,-119,-1071,-4384,-2004,-2315,-4224,5348,496,-3819,-3792,7717,2805,672,3110,7608,-1869,
4808,11579,-7099,-6211,1970,-1967,-3705,-7384,-7091,2276,-5120,2469,-1424,-1721,-1791,-1361,6490,-7028,-191,6635,654,5236,-5604,12216,1738,5011,-7404,3184,-6429,-926,-7631,-169,5468,5296,-6983,-8806,-5813,-902,-10580,8631,-2961,447,-7675,-3003,-3373,-5802,-1857,-8618,5307,522,
2807,-5000,3245,7915,-9583,-3850,-6411,-403,-5224,-2531,-460,1467,-2625,-983,-1571,264,-6454,-1961,3092,-4720,-8296,967,-977,4769,344,7926,4612,1598,3754,-1218,-4511,-5652,-2929,-190,5471,9230,2484,2593,12804,2409,1207,3121,4273,-5801,-6332,-1882,4621,-5251,722,55,
-2494,-5357,-19,-547,3045,-3310,-3238,-131,6035,4775,5730,-849,6214,5415,1148,-1692,-2132,4515,4903,-379,390,-513,1308,-4701,567,2092,-801,-2545,-1805,1576,4649,-1895,1023,-876,2121,8242,2425,-262,6767,-5313,-2664,2170,-818,7622,-3808,1688,2813,3528,-4505,421,
-2717,7167,-19,3813,-2292,456,-6570,-5267,119,6489,306,5866,3178,1328,-539,-6680,4639,-1471,-1908,-720,3127,3990,5034,6819,-2560,6482,121,-1493,-7807,-822,-569,-3631,2354,6164,-3926,-173,-3812,5435,-5909,1657,-6421,6041,-25,6512,-5617,-2278,793,-752,-512,3107,
-425,-13215,728,-2032,-344,1057,8613,12066,-1768,-9222,939,2111,-5661,-1260,1583,5073,-3616,-1982,1674,-4071,3025,1261,148,-10475,-3369,-14326,1423,-4758,10769,-7111,5518,5883,-3064,-5098,4637,7178,1807,-4043,6790,-5177,12120,-6662,3543,-6713,10948,1016,-3414,4480,-923,-5996,
4027,672,-6633,3119,6019,-587,1672,-2655,1648,-512,-4856,2981,2932,-3321,-2451,-7910,4845,-2207,-2132,239,5003,1465,5087,3125,-1557,-4407,1230,-3401,-5901,-1294,6450,-3649,5424,2309,-4596,811,-7088,-1441,-2691,3284,907,2203,-6863,3206,3588,-3207,-4031,-3938,1130,-3451,
4095,1612,-4242,2983,2884,-5922,-3493,-126,860,-858,187,3504,-4806,1566,-3106,-1498,-235,-1337,4233,-4777,-8627,-2287,-3055,2355,-7486,4827,-1394,2753,-972,-1361,-2666,-7595,1311,-1591,6420,5230,-646,-1162,4282,311,-3473,5193,-2202,-4950,-5526,93,3022,-2735,885,2189,
-2511,-1402,11949,-7188,-3512,-401,-9073,13429,-5004,-9124,-5128,20684,-489,-6399,-2138,14920,7108,10502,10386,-3753,-8120,-6395,-13152,-12281,-19158,5932,-8001,3764,14585,-13000,-1853,6214,8150,444,13666,4689,4183,-2876,12891,1059,7798,776,3407,-1555,-10101,6280,12312,429,4451,-531,
-2516,-2105,-428,-3854,-797,-4159,-533,-2659,2761,2166,5549,-5679,3155,4575,5323,-130,-4921,-687,4709,1857,-1823,944,-203,32,4014,185,-5132,479,-2545,6343,-5887,-160,-4600,-1878,2333,1769,998,1214,-3250,-2534,-7254,-986,3068,3458,-41,-303,-1423,4986,-3119,-618,
6640,2870,-6402,-4249,-3618,5015,1595,-3442,860,-7308,-2916,2534,-1915,5068,-7646,-1178,9484,-1668,-2873,7845,7298,-3733,-5368,1802,-1946,5921,-7147,3177,2586,-15120,-4234,8317,2261,-597,-2622,-10957,807,-1107,-7862,10547,-2984,-8926,-6622,-2742,2377,-1592,-9118,-10788,-3419,834,
6697,5423,-8080,6430,-1637,199,728,-6390,2058,186,3959,-7152,1121,5031,-2182,-11074,-5370,-3070,-4851,4984,429,-849,9917,6646,5646,3126,4751,-4414,-2702,1134,-5113,-3350,-2235,-2278,-7008,-5307,-1257,4458,-7286,3645,-6361,3014,-2543,-1839,-209,-1291,-5479,-5387,-1601,2129,
-2203,1116,1466,-1536,11062,-5175,-4474,1711,3746,3968,2232,3684,801,-1113,-2313,4941,-565,11737,4577,-1601,-7357,-8962,-4124,-8453,-4700,5021,23,3157,-560,-30,4132,-1451,5833,-1203,5931,4204,2564,-213,5106,-1884,1032,6703,-5475,4526,-2919,4428,4209,2614,-1235,1779,
-743,-990,-514,-2063,-690,-4591,2103,-3904,179,3534,-2864,-5310,-2704,-1419,2789,-969,-2145,-2715,2614,-66,-1962,3010,-3377,5920,5075,-665,-4089,2711,-2173,3885,-2243,-3298,-2620,654,-2973,1686,-5217,-1079,-605,-1135,-3504,-578,134,-191,1905,-4015,-1329,1747,-269,-2654,
616,-1362,-11874,-8195,3857,-9566,-6694,-5781,1274,7456,13056,-6429,5894,14043,619,-7981,-7231,4594,7666,11466,-2041,-3471,6514,-2527,7282,6074,-8948,-2938,-5689,5742,-5950,-608,-2578,1082,-5353,140,7553,-4494,-15681,2265,-18539,2622,-5457,4950,-4269,3371,1578,-1012,-4101,3448,
-6440,-1029,1617,-9270,1762,-6617,-4529,1507,-5648,7025,5093,-11431,-728,6290,6586,7253,-7934,9734,4433,4673,-8897,-2850,-272,-943,15043,2636,-4562,871,-12,15200,-9066,1863,392,2414,-2361,1235,5574,-330,-9145,-1583,-5045,-2847,-233,3396,-4218,4869,6453,5781,7184,3017,
-7706,1209,15651,392,3410,2181,6292,10098,-8005,395,-11025,-5673,-5818,-17419,652,15251,-1626,7229,-8882,-7122,-3932,1680,-5330,-5051,8325,-15033,6800,5791,3694,11343,4676,-2717,7761,-590,1026,-3133,-2537,-914,3763,-8394,18080,-5871,3799,-1775,6148,4809,8653,9359,9791,-3664,
-6162,-5333,5995,-3313,-5468,1163,3652,2841,-7302,-3562,5205,-5960,1531,1845,9568,6720,-5744,-4727,-1627,-62,3175,9313,1420,1502,3151,-7345,1457,-1301,3141,4585,-1857,5840,-5431,-16,-3860,1793,3598,-1859,1334,-6034,2064,-7497,9903,-3211,5262,780,-851,7627,1212,-448,
-3396,-4799,591,-611,832,-3025,-2345,-5753,769,7290,2739,-3268,2483,3980,-492,-5167,-4656,433,4285,-610,-287,1742,4186,5299,5058,2380,-1295,-2623,-1415,4538,955,-5978,-1585,963,-1362,6193,-1263,-254,-15,-883,-4148,1604,-1843,3566,-2490,-1593,2353,1273,1403,868,
-5218,1158,6282,427,5048,-2963,-398,2591,-6285,-783,-5413,3882,-1485,-9053,6840,3125,-653,-3060,2198,-3764,-4886,11297,2869,808,-4491,-6998,3701,-2478,-4040,8766,3306,-4688,596,2023,178,3994,-3479,491,1715,-5777,4922,7759,4383,569,-1163,-1816,8078,5555,5995,-1725,
2057,3785,-2201,6639,4615,-1160,1221,-1799,546,-798,-953,438,-1330,545,135,-3550,558,-3867,2164,-4016,432,-71,773,2159,-2580,-1694,-632,-337,-7491,948,2222,-3105,539,-2241,79,4078,-1881,3107,1439,-1353,-1755,10254,-1809,-608,593,-1847,2017,94,576,3017,
584,-1845,1165,5144,-3523,1815,-5213,-829,1396,5967,2390,-224,1367,1517,-4911,1094,227,5854,-3262,-743,956,-3991,1111,-283,3899,5576,2310,-144,1426,224,-687,2002,4190,2722,-1431,1450,2967,-162,2889,1755,-741,-1175,-807,2781,-4345,3843,2576,-1976,1969,-2237,
4219,4117,-4897,5551,3663,6646,-632,9016,3520,-6449,1653,11241,2883,1291,-3596,-2854,6731,2550,-5098,-804,3828,-5672,5729,-9666,-12546,-308,4166,-3412,-451,-9319,5486,4820,5220,-913,4570,-3050,5675,1671,-2517,1872,2181,4718,-1613,-1219,-954,5479,-2024,-2684,-2829,3533,
1645,-1808,-255,834,-4090,2939,-1270,-269,-13788,-7933,-3635,7652,-2220,-2827,-106,-791,5535,-9487,248,-4537,1801,9642,876,5916,-3220,-2625,599,-2204,3170,-6759,1108,1989,-927,2265,-4929,1942,-2834,-117,700,5425,6614,2197,1193,-9347,-1476,-6384,157,-6309,5923,1248,
-4798,1818,2673,-4260,8430,-5786,1004,4235,-9095,-1141,-2973,-1757,-6219,-3539,2571,1232,-4398,2640,3665,-5485,-7461,3698,-3654,1133,2478,-4050,-1413,3203,-838,8156,-385,-5781,1842,497,2470,3134,-2767,69,1896,-3967,4349,4151,-1616,-3144,-162,-497,4015,8117,7244,1909,
-722,45,208,-1087,677,-2022,-1696,393,-886,1562,266,1614,-1429,3097,64,-177,-614,-833,3487,-1824,-2265,-136,-1937,511,-2440,718,-2092,1487,755,-296,-2236,-2177,-58,-834,3703,3765,997,852,2639,-1736,-2142,187,357,-2571,-2454,1039,2488,955,-324,2322,
2094,-395,587,1654,-1189,2480,515,1943,-1548,-2762,167,-1457,-2498,81,-2707,3689,-544,2801,-2492,2305,-1344,-3425,-1449,-2314,2494,-165,945,1506,2597,-2265,-743,2116,1577,-1413,1070,-3777,3461,-783,-33,1908,3177,-4250,240,-4088,1336,2602,-365,-3024,1899,598,
2114,498,12658,13623,-15239,9962,1105,2460,-3335,-8676,-13937,-4092,-3211,-16572,-9500,7200,5147,6513,-11138,-11911,-10346,-10732,-8139,-499,3831,3364,8986,9024,10097,-3895,-7299,5936,955,2,5155,-1662,-1331,7794,17106,5289,18251,-10815,8173,-7287,1770,604,691,-7151,-418,-1722,
835,-2908,518,-2690,-523,102,2217,-891,4815,793,-270,-614,-2394,339,-2244,-1121,-607,3271,-722,132,4039,-4443,-832,-1535,-215,2749,632,-810,2798,-4144,1302,1019,-581,-294,-1366,-1564,-601,-970,315,305,-1338,-2547,-953,3229,2097,-454,-4444,-73,-3889,-2235,
3192,-4835,-3433,-965,-3375,-1224,4884,1050,-296,-6752,3259,-2084,-4107,6579,-1823,-2863,-597,-4889,-249,3084,1564,445,656,-4284,1258,-617,-4474,202,5292,-1941,-5378,7847,-6804,-5012,277,-798,2662,-3193,-2491,1992,-6103,-8686,1392,-4538,7490,656,-2772,-1216,-4,277,
-2060,1056,-267,-1126,-3524,-5565,-3742,-3705,-15505,-190,-3556,-1246,-6949,3405,-441,23,-2397,-7468,4728,-1050,-4110,9852,738,16085,4938,5592,-4004,557,-2165,2732,-9248,-7140,-2862,6886,-2254,6467,-6184,-4044,-36,3519,-5100,2901,3560,-11360,-5427,-7380,302,-1144,10118,3519,
979,917,1592,6466,-9667,8625,1566,1903,447,-3504,-1899,11188,4752,-4816,3812,-2591,11451,-9919,-6173,-7131,9372,10487,4794,319,-10001,-3755,7135,-5061,-2696,-4778,3332,3777,-4260,1647,-1176,765,-2323,3958,5415,-2992,4924,6150,7296,1037,2201,-4988,-3153,318,-1070,-921,
3763,-515,-2413,-3695,-2122,598,-172,103,5844,-6681,4259,4466,1276,4500,1852,343,3635,-3034,3928,2469,3512,-2451,-5497,-7845,-7352,217,-3943,3271,6383,-6742,-1230,9123,-3277,-4248,6691,-3004,4815,-516,6007,1925,-2880,-4569,2398,-1369,-2218,1388,-1837,-1564,-7760,-1214,
-3817,10440,-285,-3811,2804,-1105,-413,941,4918,5813,-6432,8431,2944,-2193,-119,748,10768,516,-433,75,2614,-391,-6591,-918,-8429,1677,-7822,3982,-3262,-976,698,-1327,2485,-58,2747,-5613,-3258,935,-5907,469,-6157,2715,-3424,6144,-1088,-921,1584,2357,-2874,1175,
-1183,-1958,158,-2359,-207,-2868,1921,-4057,-1128,2550,-476,-5198,-1221,1150,590,-1994,-5122,-2497,2078,348,-1901,2721,30,6529,6028,-934,-1132,195,-88,3699,-2738,-3681,-3397,904,-2524,3176,-3290,-259,-553,-2298,-3077,-532,261,-9,2140,-2906,-1071,729,1458,-983,
-5380,8948,661,-5924,1405,1302,2371,875,-755,2354,-7332,4743,3047,-4199,5856,2646,12121,-5104,-1254,1189,4843,8510,-91,3614,-2231,-6796,-4201,-141,-7227,7557,-2994,1204,-2948,4175,-5904,-5713,-4950,1479,-12525,-3682,-2596,3519,3649,5396,4229,-4446,-670,7537,2302,1037,
