76,60,63,102,60,59,128,59,61,58,
108,76,95,89,66,101,102,69,111,110,
89,-110,-27,-102,-116,-106,84,-112,-81,-126,
114,43,72,32,21,61,128,40,124,91,
-18,37,-61,-26,-56,-28,123,10,41,-47,
-110,-100,-99,-112,-116,-123,57,-117,-90,-121,
-96,-53,-96,-96,-104,-102,-49,-95,-105,-100,
54,128,-56,-63,-94,-78,128,-17,-83,-72,
112,100,64,-88,-92,-61,128,22,-100,-101,
-38,105,68,-27,-101,-108,128,-102,-104,-106,
-2,128,128,125,-126,-43,-85,-39,-72,-39,
128,128,128,128,-96,-21,-127,-8,-62,-27,
40,128,-86,41,127,-72,125,-76,-113,-73,
-112,128,-88,-123,128,-13,-44,-12,127,-12,
-103,128,-96,-127,127,-20,-81,-6,128,-16,
-110,128,-118,-113,127,-68,127,-62,121,-53,
128,128,128,127,127,-15,-120,-28,-60,-35,
128,128,128,128,-127,-48,-126,-60,-71,-78,
46,127,128,-15,-127,-46,128,-68,-90,-80,
78,128,-17,-59,-83,-41,128,-83,-87,-84,
120,128,-65,-71,-93,-38,127,-45,-94,86,
-84,96,-113,-44,-110,60,-61,-91,-105,116,
-111,-114,-115,-113,-116,36,-111,-117,-112,110,
-118,-120,-119,-120,-117,10,-120,-119,-118,108,
-108,-109,-108,-107,-105,65,-101,-109,-86,128,
-116,-107,-109,-107,-110,-12,-94,-88,-39,127,
-120,-97,-107,-94,-113,79,-103,-96,-38,121,
-72,-91,-103,-90,-87,-41,-94,-100,-127,22,
27,15,19,14,15,15,19,12,127,23,
-12,-34,13,-27,-38,-33,-15,-57,125,-34,
100,-79,-74,-75,-78,-79,113,-87,106,-81,
128,43,-7,75,-3,-15,128,-9,118,-24,
-25,-40,-53,-75,-100,-80,118,-56,119,-89,
55,-20,12,-21,-101,-47,128,5,80,-86,
-127,-58,-80,-55,-76,-91,128,-91,-38,-93,
-106,3,118,80,-18,-5,128,27,-7,-62,
-98,29,128,128,-124,-59,127,-47,-27,-72,
-126,28,128,128,-127,-3,-127,-22,24,-13,
-54,128,128,128,-123,122,-127,36,-108,-11,
121,127,128,-1,127,113,-127,-9,-124,-19,
116,-15,127,117,-71,82,126,16,24,7,
127,123,127,90,127,-52,85,-5,104,7,
127,123,126,114,127,-1,-39,3,-127,12,
127,-126,128,-116,125,-24,123,-3,56,32,
125,-40,128,-90,127,-46,-127,9,116,6,
127,98,128,-22,114,-64,-127,15,50,10,
94,126,128,128,-126,30,-124,34,56,31,
-30,128,128,128,-126,80,-123,49,58,52,
125,124,122,108,-124,94,128,49,76,33,
18,-17,-79,7,-42,51,126,-72,58,60,
66,38,-18,78,-44,126,121,44,65,112,
0,-57,-82,-57,-76,85,-12,-74,-12,112,
-22,-49,-49,-37,-23,113,11,-24,53,115,
-1,-3,-21,-62,-14,92,36,-5,121,124,
-109,-119,-104,-117,-116,-1,-92,-114,53,98,
-66,-107,-111,-112,-94,-68,-103,-102,-85,116,
44,48,51,49,44,65,46,56,127,80,
-16,-76,-29,-62,-62,-49,43,-72,128,-69,
73,3,23,17,25,-3,102,-6,91,4,
126,-4,-38,12,-63,-81,126,-62,93,-66,
77,28,65,1,-53,-53,124,51,34,-95,
-106,-91,-13,-57,-76,-99,126,-91,-100,-105,
-92,-28,128,-58,-125,-40,128,-22,-36,-42,
63,15,128,-66,-126,58,102,89,16,50,
79,-100,126,128,-127,-16,-26,8,-93,-1,
-60,-106,128,128,-127,45,-89,18,-125,25,
-105,54,86,-79,57,88,127,-5,-124,-15,
-73,36,-122,-27,-29,59,127,7,-114,-27,
128,-50,-55,-126,36,-2,120,-21,-19,-39,
127,-18,65,-118,125,-68,126,-19,-123,-42,
127,106,114,120,125,-16,126,-1,-127,25,
126,-105,-71,-126,124,-75,124,-11,-127,0,
-45,4,-119,-122,118,-97,-113,-23,27,-39,
-121,-64,-122,-38,-10,-58,119,-22,-31,-52,
-107,-89,126,-76,-91,6,-118,-12,7,-28,
-28,-20,128,128,-125,-43,-64,9,49,-33,
81,8,127,35,-127,11,-121,81,59,-8,
127,28,128,-124,-123,-12,-98,61,27,3,
25,-28,-2,-24,-1,13,31,-27,-12,-44,
93,-12,-67,-9,-9,114,24,6,23,48,
19,-15,-24,5,2,56,35,15,18,86,
-58,-66,-70,-60,-49,-21,-57,-56,11,120,
-110,-103,-107,-105,-95,-28,-108,-104,-7,123,
-121,-119,-122,-121,-119,-120,-121,-120,-4,115,
30,11,32,15,9,83,114,50,128,114,
76,54,71,44,53,61,101,45,109,69,
1,-104,-84,-106,-97,-98,50,-95,64,-93,
96,-63,-69,-88,-81,-93,126,-80,76,-83,
-7,-89,-41,-93,-87,-102,76,-91,-126,-110,
18,-62,118,-64,-77,-78,-55,-56,-122,-85,
123,42,128,-119,-123,17,118,69,-47,26,
-126,-64,-39,128,-127,-59,128,5,-48,-31,
-116,-105,-123,128,-127,2,127,14,-126,-19,
54,10,-125,-25,15,42,127,13,-118,4,
-70,127,112,-121,-70,113,-117,21,-120,-7,
-56,0,24,128,41,63,-118,5,-81,-29,
53,-39,44,-110,47,41,126,-7,21,-12,
2,83,-53,-83,126,-8,127,4,-94,18,
-19,125,29,126,126,9,126,16,-126,55,
-30,-90,-111,-25,126,1,126,18,-124,-6,
-112,-41,-92,-34,118,-2,-123,-21,37,-10,
-120,-14,39,6,-25,47,-121,-20,-103,-65,
-26,83,-38,-116,-50,100,91,4,-59,-27,
-51,69,-125,21,-125,54,127,27,73,-40,
-102,-46,-125,125,-126,33,128,18,22,-57,
128,39,125,-124,-127,60,128,68,44,-21,
126,29,128,-106,-125,114,-117,35,21,2,
70,-19,11,-26,13,125,-126,-9,-5,1,
116,-19,-28,6,-6,17,45,6,58,35,
-53,-69,-78,-58,-63,4,-39,-50,48,93,
-43,-26,-50,-25,-24,-30,-32,-25,121,124,
45,122,-13,93,32,115,21,102,127,128,
36,8,21,20,25,25,72,-5,121,42,
-82,-125,-115,-125,-126,-126,-34,-125,102,-126,
-120,-123,-121,-121,-126,-123,-94,-125,57,-127,
67,-99,-103,-112,-118,-119,60,-115,54,-126,
-19,-64,27,-59,-34,-94,-9,-73,-126,-100,
125,-6,125,-76,-119,-61,-119,-13,-112,-47,
112,18,107,-113,-127,-27,128,57,-67,-6,
-127,-69,-115,128,-125,-56,127,-8,-113,-32,
-42,-105,-125,126,41,9,126,8,-125,-15,
58,22,124,-122,114,58,-127,22,-116,6,
-74,51,38,37,108,74,-126,2,-121,-45,
-109,-16,-8,128,90,89,-120,1,-92,-35,
35,41,-118,-73,125,60,4,5,-22,-17,
31,114,-110,-79,126,-22,126,-6,-78,-12,
-59,128,38,35,127,-74,126,-1,-123,18,
17,-41,-122,62,124,-80,86,-9,-104,-17,
-119,-15,-124,23,126,-75,7,-20,104,19,
-113,-51,89,22,54,47,-122,-11,-113,25,
5,45,126,-126,-25,62,-126,11,-38,22,
49,55,-55,-124,61,-24,-56,6,27,13,
54,-39,-123,123,-126,24,128,9,-10,-34,
84,-35,-38,-16,-127,126,128,40,8,-25,
127,28,125,-127,-127,103,128,52,2,-39,
112,-61,126,-74,3,127,-117,-31,-33,-72,
29,-31,-41,-17,-8,65,-39,-1,27,14,
-47,-62,-74,-51,-64,-84,-37,-39,-9,61,
-52,-23,-38,-31,-24,-35,-28,-34,74,94,
-93,-90,-85,-88,-86,-92,-89,-89,101,126,
-31,-60,-20,-60,-26,-76,-21,-55,112,-58,
-120,-111,-116,-114,-112,-111,-103,-113,117,-113,
-115,-88,-113,-100,-115,-111,-56,-107,110,-123,
90,-80,-67,-86,-100,-114,47,-100,103,-121,
114,-33,95,-39,36,-70,-122,-35,-27,-87,
123,28,123,-45,-125,-10,119,69,-53,-19,
118,-12,110,-93,-125,-30,128,47,-68,-14,
-123,-53,13,127,-108,-37,119,24,-121,-32,
-114,-101,49,125,123,8,-100,44,-126,6,
-82,71,-81,30,120,60,-34,43,-125,9,
-44,-3,-94,126,119,114,-116,15,-93,-29,
-84,52,63,128,125,110,-119,10,5,-40,
-51,45,79,122,126,90,-123,15,-2,-30,
66,114,-80,-35,125,18,47,10,-86,0,
1,127,-8,-87,126,-55,124,23,-121,20,
-119,11,-55,108,123,-95,-121,-14,-103,26,
-127,43,-38,-5,125,-95,-119,-9,4,17,
-18,-44,109,-37,22,-23,-117,-40,-41,59,
32,-10,105,-51,-117,12,-11,-27,-114,57,
-16,11,-9,-126,85,-69,-69,-33,-47,20,
-64,-59,-28,119,-11,51,-104,10,-44,6,
23,-16,67,-24,-126,52,127,46,29,-27,
117,-24,97,-120,-127,127,119,34,8,-29,
113,-31,120,-67,40,127,-99,19,-3,-5,
84,17,-11,31,47,124,-30,53,56,-10,
11,-23,-47,8,-25,96,16,9,120,20,
-103,-70,-86,-69,-79,-67,-57,-71,113,98,
-82,-50,-81,-69,-86,-89,-73,-77,111,115,
-37,-74,-100,-87,-78,-127,-41,-119,113,-127,
-112,-108,-113,-106,-112,-114,-99,-118,108,-122,
-63,-75,-106,-93,-115,-123,-69,-107,81,-127,
46,-58,-50,-69,-72,-118,67,-84,61,-119,
125,34,101,13,100,-50,-119,20,25,-59,
127,41,120,-99,-125,4,112,73,-44,12,
122,-31,122,-108,-123,-72,125,42,-123,-41,
-76,-35,114,42,116,-62,-16,46,-124,-4,
28,-78,31,65,126,-12,-117,52,-121,3,
-65,95,-118,126,-21,19,-29,9,-45,-25,
46,29,-123,124,-39,86,56,-13,39,-43,
106,-27,-82,126,69,50,-15,-11,69,-62,
-83,-45,0,127,115,91,-9,0,-15,-66,
13,118,-92,36,126,100,125,13,-78,7,
-62,126,-30,-106,127,-30,125,17,-65,42,
-32,120,44,13,37,-57,34,-56,-121,114,
-33,4,-26,128,84,-77,-7,-92,13,92,
45,33,34,-14,-8,-114,127,-30,1,10,
32,4,-93,19,-56,-115,55,119,-78,-58,
117,-12,-126,-119,74,-119,-86,52,-45,-68,
-111,-64,-19,-4,111,-10,-107,-24,-33,60,
-34,-54,-65,41,-73,114,123,-12,-17,49,
122,-47,65,-126,-127,120,119,-14,25,16,
114,-17,100,-90,1,127,-106,12,-8,-9,
49,6,-36,35,41,127,-94,-20,35,27,
27,-19,-56,9,-40,110,13,-31,108,102,
-96,-96,-111,-70,-105,-49,-94,-71,86,33,
-91,-91,-112,-92,-109,-117,-102,-121,104,86,
-117,-126,-127,-125,-127,-127,-127,-127,115,-127,
-89,-108,-121,-100,-122,-121,-94,-116,88,-126,
20,-80,-63,-73,-73,-122,35,-110,92,-123,
97,-42,-41,-35,-33,-100,27,-78,48,-114,
121,15,-36,-16,86,-55,-127,13,26,-72,
125,23,127,-118,-112,-49,25,49,-52,-7,
124,-26,127,-105,-21,-110,125,57,-125,-39,
80,-50,110,-89,96,-125,118,40,-51,-27,
99,-86,125,-30,95,-79,14,18,-45,-50,
-20,74,-86,25,-9,-46,-76,-12,82,-43,
-35,107,-125,12,42,-4,-72,-29,127,-70,
81,-28,-125,127,127,37,-27,-37,127,-58,
-36,-90,51,127,121,110,-2,-13,34,-65,
-78,118,-72,127,66,127,126,1,-73,-1,
-123,128,114,89,114,128,126,-34,-97,27,
-43,124,54,122,-18,127,123,-123,-124,90,
-35,-18,93,128,30,-71,9,-125,-125,122,
33,39,-67,5,26,-126,127,3,17,55,
-27,92,-15,-123,-14,-124,92,128,-26,-67,
123,6,-80,-104,-86,-117,-112,128,-72,-84,
-34,-78,31,40,67,-89,-94,36,-13,15,
77,-49,-102,34,101,122,-20,-99,-74,114,
104,-9,72,-106,-110,124,70,-122,-44,98,
84,28,64,-38,-14,127,-78,-81,1,87,
38,60,-31,49,43,128,-91,-115,48,127,
41,55,-5,70,25,37,51,-127,72,127,
-61,-81,-100,-47,-100,19,-63,-66,104,81,
-39,-57,-83,-46,-35,-13,-71,-87,101,33,
-127,-126,-127,-126,-127,-127,-127,-127,93,-127,
-85,-96,-118,-90,-119,-124,-95,-118,104,-123,
43,-62,-86,-60,-101,-123,27,-107,76,-120,
128,-3,-24,-10,8,-84,26,-52,78,-114,
125,47,-53,21,68,-11,-127,39,20,-46,
120,19,-65,-103,73,-80,-71,50,-13,-5,
126,-33,-109,-114,121,-127,-61,60,-40,-31,
126,-78,109,-122,13,-127,126,33,-42,-30,
127,-27,125,-127,-104,-127,124,7,55,-43,
124,79,43,-120,-64,-125,-82,-26,127,-47,
-8,126,47,-121,72,-94,-94,-74,128,-62,
-123,-15,-6,128,14,10,-36,-88,128,-58,
-24,-84,114,128,15,122,-32,-61,93,-47,
-126,95,-31,128,33,128,61,-66,-50,-47,
-85,127,-15,125,108,126,84,-112,-85,-15,
-12,120,113,17,43,121,15,-126,-126,76,
-80,-44,116,127,14,-122,36,47,-125,106,
1,36,120,-116,-127,-127,78,127,-16,45,
90,92,31,-127,102,-122,-3,117,-12,43,
124,-7,22,-126,-122,-119,-70,35,14,29,
-55,-122,101,23,-116,-95,123,-12,-112,45,
124,-82,-116,28,92,44,-47,-28,-103,115,
93,-25,-117,-67,-33,37,-60,-121,-57,117,
-8,45,28,-46,-24,47,-92,-117,-8,126,
48,58,-24,24,38,42,-92,-119,62,126,
10,69,-10,68,46,-26,52,-126,22,128,
-28,-34,-51,-3,-43,128,-14,-27,124,121,
-115,-110,-113,-113,-114,27,-115,-107,105,-118,
-127,-126,-127,-125,-127,-127,-127,-127,123,-127,
-90,-95,-113,-77,-115,-125,-85,-114,111,-123,
-26,-65,-74,-61,-93,-118,29,-111,121,-121,
125,17,-19,10,31,-83,-43,-52,99,-98,
128,64,-96,32,37,2,-117,30,48,-8,
122,-22,-105,-86,13,-127,-124,12,50,-51,
124,-47,-47,-115,85,-127,-124,39,-22,-39,
125,-57,16,-126,63,-127,126,10,50,-26,
126,-9,128,-58,-123,-127,124,-10,102,-10,
128,114,128,-127,125,-127,104,-72,122,-14,
85,127,97,-121,-12,-113,-42,-127,128,-54,
-123,-53,125,127,-119,108,-70,-124,128,-72,
-60,-82,-2,128,-89,127,46,-81,27,-83,
-17,68,-109,100,61,128,20,-78,-48,-24,
15,-119,-111,128,116,125,-11,-123,-124,30,
41,127,-126,-76,51,125,124,-112,-126,119,
-18,-50,109,127,-12,-124,75,128,-127,-6,
14,75,127,-118,-127,-125,76,128,-116,14,
114,90,90,-127,79,-123,4,128,-89,80,
-38,2,-92,-125,-83,25,125,-124,-18,125,
-48,-120,37,42,-47,112,126,-120,-60,86,
124,-100,-94,-32,41,14,-110,-105,-62,65,
123,-51,-116,-68,8,16,-124,-82,-63,62,
-57,39,-66,-54,43,-113,23,-33,17,127,
-2,58,-45,27,0,-120,-66,-43,88,127,
0,55,-24,37,12,-111,33,63,23,128,
8,15,-8,50,3,128,25,123,123,-29,
-116,-115,-120,-120,-119,88,-121,-112,88,-122,
-125,-122,-123,-119,-124,-120,-114,-122,127,-124,
-86,-88,-101,-70,-114,-123,-59,-116,124,-123,
16,-65,-69,-57,-83,-119,68,-109,128,-122,
9,45,83,43,88,-62,118,-44,118,-87,
-20,34,-50,30,-11,-71,-31,-23,121,-17,
123,-1,-116,-85,-60,-127,8,-2,82,-62,
120,-37,-55,-118,11,-127,-123,9,113,-41,
124,-61,73,-15,-12,-127,126,-26,123,-23,
126,-9,100,-81,71,-127,123,-64,124,-25,
128,120,104,-126,122,-127,92,-125,124,-40,
76,127,-34,-125,-127,62,110,-127,128,-50,
-100,-127,21,123,-32,127,-121,-81,125,-111,
6,-32,-65,126,-23,125,-9,55,5,-66,
-13,-32,-17,128,-85,56,64,-117,-80,32,
31,-127,20,127,73,-121,-123,20,-126,50,
-7,126,-91,-61,-60,-54,126,55,-126,118,
-74,12,114,124,-17,-83,-16,123,-127,41,
104,59,90,-119,-125,-115,-8,128,-71,-71,
126,128,2,-127,75,-90,34,90,-55,70,
45,10,-80,-127,124,62,93,-112,-70,88,
-24,-63,-2,49,2,128,127,-123,-77,126,
125,-78,56,-23,-69,123,-119,-122,-30,86,
104,-55,-55,-85,-84,128,-117,-120,-46,74,
-13,0,-126,-88,45,128,76,25,-5,44,
-69,9,6,-19,-38,57,-52,59,-13,106,
-58,54,-9,64,20,-123,38,124,-14,123,
-3,19,-7,46,-2,126,39,127,128,-37,
-112,-86,-115,-115,-118,128,-117,-115,104,-117,
-127,-124,-127,-124,-126,-124,-122,-123,124,-127,
-92,-85,-106,-62,-94,-114,13,-113,126,-121,
35,-57,-49,-45,-67,-113,102,-113,127,-118,
0,-7,81,42,25,-80,96,-98,119,-112,
-125,21,68,50,-59,-122,83,-84,128,-52,
-58,11,-92,30,16,-127,128,-44,126,-56,
-63,-12,122,-13,-9,-127,-126,-37,125,-33,
-124,-24,115,80,-20,-127,125,-101,126,-14,
34,-33,-92,-125,123,-120,123,-126,124,-18,
125,96,121,-127,121,127,-5,-123,128,-42,
6,127,64,-126,-22,126,-8,-10,128,-67,
-20,-109,22,124,-96,127,-123,128,99,-122,
-46,27,-41,-36,-89,-14,-3,128,-48,-22,
22,-124,-30,124,-20,20,121,-39,-121,40,
71,-127,-32,127,107,-93,-117,1,-125,62,
16,126,-63,-53,97,-125,107,109,-122,126,
-52,110,97,126,-15,-70,7,126,-126,75,
6,18,-46,-44,-94,24,70,115,1,-42,
119,80,-24,-127,77,-88,77,35,40,115,
102,15,43,-126,110,100,-62,-54,-28,62,
-110,-34,39,88,-45,128,126,-114,-65,19,
-25,-52,124,-1,-80,128,20,-124,-74,23,
64,-22,46,-66,-113,126,26,-121,-118,2,
41,8,-46,-44,47,125,75,-43,-91,6,
-50,-11,33,-14,-55,126,-27,119,-69,34,
17,49,-16,32,0,95,-30,126,-23,104,
4,12,-5,35,-7,126,34,128,128,-121,
-112,-116,-112,-112,-117,128,-113,-91,127,-125,
-123,-123,-124,-122,-122,-122,-123,-124,118,-125,
-61,-76,-75,-54,-66,-116,12,-109,127,-118,
-15,-41,-37,-16,-55,-102,30,-108,120,-115,
-44,27,80,74,41,-33,104,-68,121,-50,
-120,1,75,23,-9,-127,17,-116,126,-90,
-123,7,-58,62,52,-127,120,-109,126,-60,
-126,2,128,78,-79,126,-80,-127,126,-1,
-127,-10,117,114,-2,126,127,-127,118,16,
7,-2,-104,-126,-39,127,120,-102,103,-7,
128,104,25,-123,111,127,73,65,51,-73,
90,84,-51,-77,13,128,3,126,25,-115,
45,-89,-32,125,-122,128,-121,69,50,-94,
-33,84,-6,-108,-111,-59,-122,-77,29,101,
-16,-122,-26,124,-4,-109,29,9,60,-39,
-6,-127,-50,127,16,-122,-10,-33,-102,68,
18,125,-75,-95,-53,-120,77,124,-122,70,
37,118,122,18,-74,-118,-96,109,-122,88,
59,-61,-52,70,-15,-127,-80,72,70,59,
79,-5,-97,-125,94,-1,47,14,126,114,
108,-1,-101,-125,80,-53,-8,128,-78,31,
-46,-31,-118,26,13,-51,123,128,-96,-15,
-124,-22,119,101,5,-123,-27,55,-24,83,
-53,-10,125,-56,-36,-21,58,61,-124,102,
47,5,-108,-5,66,118,61,128,-82,-20,
-34,-2,51,-5,-29,115,54,124,-25,34,
-1,48,-54,16,-19,-67,-42,128,23,11,
8,12,-3,16,-12,-54,5,128,128,-125,
-105,-96,-99,-107,-111,128,-101,81,127,-106,
-110,-122,-122,-106,-60,-92,-77,-124,123,-123,
47,-50,1,23,2,-66,71,-113,128,-121,
-3,-46,-10,-1,-55,-70,7,-108,128,-113,
0,50,92,112,51,5,103,-21,124,-45,
-106,9,-10,90,95,-127,59,-92,127,-53,
-117,7,-87,54,36,126,117,-127,123,-52,
-117,-3,128,117,-26,125,-95,-127,107,-14,
-123,11,26,107,85,52,73,-40,77,-13,
86,42,-42,-125,21,-26,104,123,-29,-64,
127,26,-5,-122,-6,83,17,126,-3,-124,
7,5,-12,33,12,127,34,122,65,-120,
17,-37,79,-23,-92,-123,-104,65,121,38,
-56,103,-31,-122,-105,-125,12,51,116,-2,
-22,-127,-79,127,-7,-126,42,5,90,-66,
33,-127,-73,127,89,-125,-95,73,-38,60,
-44,126,-107,-95,-64,-125,38,27,-3,123,
29,119,124,-69,-123,-124,-4,40,-17,101,
34,-120,-18,-22,-49,-111,-33,-7,71,116,
13,-67,-102,-124,-37,-18,39,101,123,62,
102,15,-85,-125,31,19,17,127,-9,16,
2,-4,-118,49,119,-126,57,127,-51,-35,
-97,-35,118,68,15,-127,-78,128,-124,55,
-104,-6,128,4,-125,-125,-27,126,-124,43,
3,-6,-84,0,43,-120,107,126,-87,-39,
-81,16,74,6,-42,-127,68,128,34,-28,
40,72,-66,41,6,-127,-70,128,89,-40,
63,51,14,49,7,-127,17,128,101,-114,
-57,43,-80,-13,-67,90,-63,126,128,-36,
-93,-99,-113,-108,-74,-7,-78,-73,119,-115,
-62,-70,-74,-24,-95,17,-51,38,127,-103,
20,-44,22,-21,-48,-79,-35,25,93,-94,
-15,22,76,78,34,-127,-30,93,119,-57,
-52,0,63,61,50,-124,-64,12,107,-32,
-26,15,-73,17,65,127,120,-126,58,-6,
-112,0,128,72,16,126,-41,-124,83,-26,
-84,31,-66,104,126,40,-75,111,96,-68,
-6,64,-37,-119,73,101,81,113,83,-103,
53,25,-51,-119,16,82,70,126,61,-117,
35,-45,1,63,10,-119,-61,124,123,-120,
-10,8,78,19,-100,-126,-75,123,125,-70,
-121,100,-50,-125,-91,-124,-67,46,112,-46,
64,-127,11,120,54,-122,35,79,27,29,
65,-127,-21,127,121,-125,52,119,-66,81,
-49,126,-68,-123,0,-126,27,121,-4,91,
-54,124,60,26,-114,-125,-64,124,12,104,
-21,-107,38,-41,43,126,-87,-32,-45,84,
-121,-30,-125,-101,26,128,36,-107,-13,68,
-48,38,-48,-122,37,125,34,112,57,5,
-106,-15,-116,-17,91,33,0,127,56,43,
-74,-3,125,16,106,-127,-103,127,-43,63,
-122,-6,128,-71,-74,-127,20,128,-124,4,
-71,-11,-48,-27,-13,-127,78,128,-79,-85,
-75,23,27,-2,-16,-126,38,128,-12,-46,
56,95,-14,47,30,-127,-70,128,108,-8,
77,61,28,47,33,-127,20,128,6,-105,
-70,5,-113,-59,-111,-45,-111,123,52,-21,
-108,-98,-112,-103,-110,94,-108,49,54,-112,
-23,-61,-64,-6,-82,127,-66,121,124,-33,
41,-35,21,-22,-9,-98,-9,112,32,3,
-51,-35,61,3,-13,-115,26,109,43,28,
-81,-18,36,6,26,57,-38,55,22,-2,
15,9,-12,5,-29,128,110,-127,45,29,
-25,-1,126,-41,83,128,16,-111,79,-54,
37,-4,-101,-3,127,128,-54,29,103,-120,
-50,42,63,-12,-25,128,-79,121,51,-120,
47,-42,-43,-6,39,124,26,124,54,-123,
76,-72,46,32,-80,-120,-73,106,64,-112,
27,21,53,5,-125,-127,-47,33,108,10,
-10,109,-35,-20,-127,-125,-89,28,76,49,
48,-127,0,127,52,-124,-80,114,-7,0,
97,-127,-8,127,98,-127,-43,127,-70,123,
43,126,-47,-83,-127,-127,67,113,63,92,
27,125,51,7,-125,55,-67,69,11,91,
127,-69,35,2,-76,128,-123,-29,-67,23,
28,-55,-122,63,21,128,31,-50,-18,-45,
-47,-37,1,-72,54,128,60,-26,11,7,
-98,-22,-99,-104,84,125,31,121,-36,-6,
-66,-30,116,-71,119,125,-45,128,-125,4,
-106,-24,125,-92,45,23,34,127,-124,-56,
-68,-8,-42,-24,3,-127,68,128,-48,-70,
-100,-5,54,-38,-50,-125,35,128,-20,-23,
46,90,0,47,10,78,-31,128,38,-68,
128,90,66,74,68,-58,35,128,-24,-61,
48,45,-81,46,-65,118,-33,79,-17,87,
-48,-47,-103,-63,-97,128,-88,128,84,-112,
-20,-31,-51,-30,-70,126,-59,125,108,49,
50,2,25,-11,-3,-101,7,109,38,128,
-3,9,70,46,33,-121,41,98,-27,128,
-22,-16,-28,10,-7,126,32,-127,33,100,
13,2,46,6,-66,128,36,-126,69,-20,
22,-5,127,-88,47,128,-5,-123,49,-122,
-39,-10,-48,10,120,128,1,-56,30,-127,
-58,22,17,-23,115,127,-113,24,-74,-126,
51,-70,-19,116,42,126,1,48,-51,-105,
50,-94,-45,-13,-122,24,53,-6,-17,-28,
59,55,113,35,-126,-20,-21,-68,-15,38,
42,82,0,-40,-29,-64,-54,3,-8,7,
49,-127,40,126,-19,-126,-49,101,-44,23,
54,-127,5,127,89,-119,29,121,-113,51,
20,126,-10,-126,-63,-69,71,108,6,50,
-64,123,-29,9,-122,126,6,128,-31,-22,
79,-41,-42,-7,-74,128,-31,48,-36,-79,
3,-101,-22,57,77,128,11,-121,-29,4,
-105,-73,-45,3,108,128,-56,-122,5,10,
-55,-34,-31,-126,104,128,-24,-31,-58,16,
-18,31,97,-53,59,118,78,69,-63,97,
-80,13,127,-36,-13,75,31,128,-65,13,
-20,1,-43,30,23,117,75,128,25,-29,
-68,6,14,-18,-87,127,53,128,27,-25,
66,84,10,37,-10,128,-3,127,8,-119,
127,87,88,80,64,128,42,128,-51,-19,
40,49,-108,43,-88,128,-64,80,-52,95,
-37,-27,-102,-59,-81,128,-81,128,-17,-104,
-42,-69,-47,-57,-68,125,-37,126,-20,65,
13,-55,5,-39,-23,-110,-14,128,-38,128,
-4,20,56,62,17,-122,66,84,-64,127,
31,11,-77,13,-85,126,86,-78,-12,45,
24,-9,117,5,-46,128,-104,3,-49,-126,
16,18,71,-96,86,128,32,44,44,-126,
-31,24,34,-4,-43,127,46,38,13,-117,
27,-20,50,-77,114,128,-122,45,-38,-126,
-3,-87,-13,124,16,126,67,-63,3,-81,
35,-72,68,88,-114,125,16,-50,-29,-62,
-38,115,-20,-9,-106,20,5,59,46,-39,
-41,79,33,50,-4,104,-36,28,89,-48,
37,-127,39,127,77,-126,3,64,-5,71,
65,-127,63,127,86,-8,13,-53,35,57,
-5,124,-82,23,-4,128,40,-44,37,-30,
-32,125,6,-35,-125,126,-80,45,34,-88,
104,9,-54,20,-103,127,-83,-34,-53,-40,
0,-105,-10,-46,7,128,-32,-125,-32,27,
-28,-99,-121,21,126,128,-53,-122,61,2,
-125,-14,29,-70,87,75,-36,-58,30,56,
-25,4,35,-40,55,114,4,-102,87,126,
-40,7,128,-12,-28,123,-62,-44,-21,-14,
-63,-57,-50,-7,-5,126,-48,-75,60,-69,
-71,-26,-91,-15,-83,128,126,-110,110,-110,
17,31,-7,-3,-34,128,-47,-121,16,-108,
76,63,72,45,16,128,23,-123,-22,5,
-97,-19,-98,-68,-98,128,-98,75,-89,75,
-116,-101,-126,-118,-125,128,-126,128,75,-124,
-45,-14,-12,-55,-41,128,-20,102,118,128,
41,-22,65,-10,8,-26,12,29,-31,128,
-55,-17,2,3,-52,-43,74,25,-60,127,
1,18,-64,21,-112,127,119,-36,-58,18,
-11,-12,16,8,-48,127,-88,103,-34,-126,
13,38,8,-73,20,127,38,123,-34,-125,
-29,27,15,42,43,127,10,125,-36,-126,
106,-74,35,-50,120,126,-126,51,-32,-74,
37,-66,-13,91,-27,124,82,97,6,-68,
119,-60,65,75,-54,-10,-127,3,38,-38,
-6,122,-10,-30,-77,-124,-46,-23,37,39,
-54,55,56,-24,16,-91,-13,-66,96,-13,
-10,-127,70,127,49,-123,-48,12,14,18,
15,-127,52,127,25,68,45,22,-16,-27,
-53,25,-44,43,-40,127,-37,-29,41,-105,
43,122,-31,-111,-115,126,-38,-82,96,-33,
38,44,-11,-20,-103,128,49,-121,31,-2,
-49,-106,-59,10,-39,126,46,-112,53,95,
10,-54,-124,-56,127,-120,-126,-82,114,94,
-114,-28,21,35,103,-127,-103,49,127,127,
-67,-9,-4,45,2,-28,79,-21,122,51,
-83,-5,122,65,-9,123,-51,54,22,-45,
-117,-56,-47,-4,10,126,-82,-60,97,14,
-8,27,-22,32,-99,128,127,-122,64,-82,
47,38,17,4,-23,128,-27,-119,42,-101,
105,88,90,62,32,127,52,2,-68,-57,
30,40,-105,39,-86,128,-71,128,-40,50,
-59,20,-114,-45,-114,109,-106,-17,72,75,
95,69,1,70,23,122,88,-3,51,114,
46,-3,69,10,4,26,38,-81,20,126,
-46,-18,-54,16,-69,-1,76,-119,-116,118,
7,63,-73,52,-14,119,111,-60,-77,75,
-16,6,73,18,2,126,-110,-72,12,-127,
2,37,-13,-76,60,126,119,-5,-8,-120,
-91,18,-22,55,102,128,26,-29,-48,-10,
128,-93,-11,-68,117,104,-127,-27,-25,-59,
51,-38,94,98,-116,-29,113,-59,-22,3,
7,-52,8,26,20,-116,-54,-125,42,47,
-71,123,-72,17,-17,-120,-24,-126,89,77,
-46,36,-40,-53,43,-36,-58,-122,111,84,
75,-127,-3,127,114,-35,-105,-102,89,38,
43,-127,9,127,117,26,-118,0,74,-26,
-39,-81,-39,91,3,127,30,76,-34,-55,
-76,124,-44,-115,-90,125,-27,19,104,52,
-5,79,-33,-28,-97,76,-7,15,122,44,
-15,-44,10,-62,-77,-127,-39,18,54,104,
-14,0,-125,3,119,-126,-32,69,78,58,
45,-17,-67,-13,109,-125,-97,6,87,116,
-63,14,39,-4,7,-115,89,61,24,37,
-67,26,120,57,35,-55,-59,73,47,-16,
-20,-24,45,33,28,126,-42,29,46,54,
-4,32,-62,30,-113,128,127,-104,-3,-5,
35,48,-56,9,-28,128,-12,-125,-8,9,
45,36,50,25,-12,128,41,47,-99,-19,
55,70,-81,63,-77,87,-32,128,77,57,
19,83,-58,27,-30,99,-10,31,58,99,
25,45,75,5,2,98,29,63,23,65,
48,80,94,67,-24,-85,62,64,82,102,
-21,68,13,48,-48,-123,65,-8,20,97,
-33,21,-74,40,-38,-71,102,-32,-36,31,
-50,-7,95,12,103,126,-110,-4,79,-101,
-23,48,55,-96,120,90,37,-64,46,-67,
-8,16,-62,-55,110,120,-24,-97,-65,-21,
128,-99,-121,-118,126,124,-124,-85,-22,-23,
-19,-42,74,72,-118,-17,121,-119,55,21,
-56,-100,-10,118,-24,-81,-38,-122,22,114,
-41,124,-51,-22,-74,-111,-80,-124,67,121,
16,39,38,-111,-8,-25,-25,-124,71,62,
24,-127,37,127,50,-75,-49,-125,50,14,
32,-127,28,127,85,-122,15,-61,79,-2,
29,-102,39,116,-5,-2,-59,45,61,-8,
-99,123,-19,-9,-121,-87,-16,9,101,20,
-61,123,-9,64,-123,-125,21,121,88,-15,
-8,-26,9,14,-13,-125,-49,128,41,-53,
54,11,-104,6,115,-127,20,127,21,16,
88,-77,-91,-101,120,-126,-120,-7,73,124,
-94,6,-57,-66,62,-104,98,-20,44,60,
-57,18,122,-6,92,-124,-115,8,59,114,
-69,-74,-56,-30,51,-96,-85,-37,118,114,
-61,30,-92,31,-90,126,127,-115,76,117,
-4,-13,-64,-13,-46,124,-34,-115,-55,64,
8,10,30,13,-13,4,19,-102,-35,66,
72,94,-11,90,13,-16,34,115,102,90,
-80,27,-82,-66,-83,104,-80,-51,45,105,
5,-1,30,1,-22,125,13,34,15,35,
-5,-20,12,-28,-30,-118,-13,28,57,7,
-31,31,46,55,-7,-125,24,80,-17,-4,
-26,48,15,40,-55,-116,98,98,63,-20,
-94,1,120,-53,83,109,-105,66,71,-66,
-26,69,67,-96,122,89,117,-33,5,-71,
21,17,-115,-113,127,108,57,-58,14,8,
126,-94,-60,-120,127,112,-69,-93,-49,-4,
-71,-52,-7,112,-117,-63,99,-112,-5,46,
-36,-75,19,122,-6,-47,-122,-121,33,93,
-55,120,18,-23,-112,-6,-85,-120,80,116,
46,49,7,-125,-64,9,-38,-123,63,124,
32,-127,60,127,2,26,-3,-126,81,48,
39,-127,81,127,121,123,97,-81,32,-102,
-48,-106,87,109,18,111,-119,42,78,-57,
-123,122,79,-114,-36,-66,26,56,113,-52,
-13,117,-29,81,-56,-121,-77,127,101,-72,
-10,-24,16,108,-57,-126,-118,127,97,-127,
72,26,-87,56,-99,-120,19,126,-24,-62,
27,-27,-104,-105,119,-126,77,-74,65,121,
-52,10,-67,-74,37,-113,108,-60,94,111,
-77,-15,122,-106,10,-127,-104,-91,110,123,
-104,-59,35,-23,39,-111,-64,-107,53,125,
-43,33,-81,48,-57,124,-4,-104,1,120,
8,38,-12,41,-37,125,-7,-118,21,38,
23,49,25,13,-9,-33,17,-13,-30,0,
70,116,4,82,16,-65,59,98,108,110,
-80,-51,-80,-81,-82,104,-76,-76,2,124,
-20,-26,11,-40,-46,108,-11,-24,-2,63,
-32,-53,-18,-53,-71,-123,2,-39,16,19,
-51,4,27,9,12,-100,7,13,48,38,
-2,28,-15,22,98,-126,-52,59,114,1,
-110,-11,117,-66,29,-6,-116,54,126,-46,
-51,53,61,-74,18,36,113,21,40,-19,
21,22,-80,-104,121,81,118,0,-4,16,
116,-56,-87,-103,-70,83,108,-33,-14,60,
-50,-48,0,95,-114,40,-73,-77,-50,97,
-108,-127,-20,119,-10,-90,-122,-120,7,113,
-58,119,-26,-47,-88,-82,-22,-118,37,127,
83,81,31,-116,-33,47,-35,-104,-51,74,
51,-127,51,127,1,109,78,-71,-5,-49,
85,-127,97,127,59,72,88,27,13,-100,
-17,-111,92,103,13,14,-96,33,68,-30,
-106,118,50,-126,34,8,-54,62,115,-86,
-60,88,-26,41,-4,-125,3,112,59,-125,
37,40,20,112,32,-73,-89,128,6,-127,
93,49,5,46,-118,-65,121,100,-29,-53,
117,-32,-114,-59,117,-121,126,-8,-8,91,
40,21,-46,-5,57,-105,64,-21,-33,28,
-19,-12,111,-85,28,-111,-42,-26,50,69,
-98,-52,82,-42,118,-126,-123,-67,-24,126,
-9,54,-26,69,32,68,15,5,-8,40,
-38,4,-26,-4,-54,126,-51,-92,-27,-37,
30,2,5,14,4,-83,17,-10,-94,-4,
-5,78,-28,14,-34,-51,-10,-33,115,124,
-59,-43,-50,-42,-51,127,-50,-50,41,125,
-54,-57,-24,-85,-53,125,-31,-81,24,48,
-49,-70,-45,-88,-69,-41,-24,-83,-48,-36,
-49,-41,33,-5,32,-84,-89,-39,54,5,
7,25,-42,3,125,-101,-118,11,77,2,
-103,-27,114,-60,9,-121,-58,2,126,-6,
25,39,11,-13,-23,-14,111,2,83,27,
-9,18,-67,-103,43,40,127,-10,-20,78,
120,-28,-117,-101,-116,76,120,1,-83,64,
-75,-98,-26,42,-71,89,-50,-54,-21,86,
-47,-81,-8,114,81,111,-119,-93,-2,60,
-17,109,5,-2,-92,93,-85,-47,-33,82,
71,115,24,-123,-47,95,-38,-47,-31,49,
39,-127,80,127,-48,98,46,-32,-85,-1,
113,-127,123,127,42,-9,61,-42,65,-6,
25,-122,79,110,47,33,-103,-27,53,-82,
-58,118,107,-125,-17,-25,-103,11,125,-51,
8,71,88,73,-24,-31,58,45,123,-44,
10,40,96,70,47,9,-118,37,37,-66,
34,44,-47,32,-121,-28,126,35,-3,16,
82,-39,-110,-43,-63,-122,125,6,-17,-6,
22,24,-63,-11,58,-14,62,-6,-75,-22,
-12,-24,104,-51,-127,-102,104,-11,25,7,
-13,-55,-35,-58,114,-123,-45,-46,14,46,
23,59,-18,73,126,18,-73,55,33,-18,
-15,30,-7,10,-38,126,24,-38,5,-56,
60,69,16,33,14,41,80,-34,46,-4,
50,72,23,71,21,25,55,-2,107,122,
-109,-101,-115,-107,-117,71,-114,-113,-107,35,
3,0,12,-6,2,106,-15,-25,-26,46,
47,66,78,58,66,62,63,5,55,29,
27,42,88,19,122,28,-89,-12,34,17,
-38,5,-40,-43,128,-84,-125,6,-27,-60,
-81,-32,121,-56,-120,-124,33,-15,44,-36,
76,40,11,1,-69,-78,108,-2,26,1,
-8,37,-97,-27,2,33,128,-9,-9,60,
128,-37,-117,-83,-117,22,122,5,-43,57,
-25,-77,79,44,-26,43,-121,-17,-87,63,
29,-68,-108,122,107,18,-122,-21,-54,36,
-16,110,-21,65,27,83,31,-29,-46,37,
34,124,-15,-121,-25,115,-6,7,-38,2,
-10,-127,-11,127,6,49,115,-1,-104,20,
11,-127,68,127,117,33,80,-14,-27,-8,
-40,-122,36,73,-20,-22,-126,6,-21,-24,
-34,121,68,-124,-10,-54,17,22,70,20,
-90,80,-11,-30,18,-23,66,29,76,-32,
-77,13,-47,-45,124,-59,-126,27,-18,-55,
-17,5,15,2,-121,-84,122,39,6,-13,
120,-29,-115,-48,-124,-120,125,17,5,-40,
83,6,-31,16,26,-32,22,-6,39,-73,
15,-48,85,48,-126,-60,122,-10,56,-54,
-97,-78,-87,-101,115,-122,-91,-36,-59,-63,
-48,-4,3,11,124,-89,-124,-23,1,-56,
-50,17,-3,-8,-12,128,-10,-46,-8,-49,
16,15,33,7,31,52,35,-41,35,27,
7,11,-8,23,-45,9,24,-21,101,105,
-85,-72,-95,-79,-92,117,-92,-78,-35,-102,
-75,-42,-55,-62,-59,128,-51,-55,65,-13,
44,75,81,67,69,124,84,66,67,49,
-29,28,-3,21,119,88,-23,1,68,30,
-67,8,-118,-19,128,2,-85,26,-27,-39,
-98,-20,114,-42,-61,-105,26,-5,7,-27,
41,49,60,73,-114,-37,126,32,-2,38,
36,15,-90,26,65,-52,22,-9,124,-6,
112,-43,127,-120,-115,-47,10,2,4,22,
-50,-35,128,-62,-121,2,127,11,-75,23,
-7,-84,-75,124,85,118,-121,-9,26,-32,
25,64,-53,127,-22,124,-42,2,30,-13,
51,127,-36,-106,-36,128,-70,12,-2,-41,
23,-127,-83,127,-102,128,126,-22,-9,-47,
5,-127,22,127,-35,-3,126,-3,7,27,
-7,-109,29,120,-8,-101,11,18,-30,11,
7,124,56,-87,-57,-124,41,2,52,-8,
-90,104,50,37,-3,-38,-5,12,23,-29,
-104,10,115,-41,-45,-82,119,3,10,-29,
-45,49,56,-116,-127,-108,127,1,-17,-5,
34,-23,84,-66,-7,-87,-92,-14,117,-67,
-2,-5,-73,119,111,22,108,14,79,-38,
-29,-11,95,67,-125,-39,116,-2,21,-41,
-63,-19,73,-64,94,-124,20,-6,-81,-37,
-4,6,-75,10,126,-127,-97,14,-24,-22,
-11,-23,2,-2,8,40,94,-26,18,-15,
-49,-31,27,-17,-8,37,18,-54,60,64,
105,109,105,106,103,108,105,57,106,115,
38,36,27,49,75,127,62,40,128,-89,
-17,-5,-11,-28,41,128,2,-8,103,-73,
107,84,94,76,87,122,128,101,82,61,
-32,36,-107,28,116,128,126,42,41,31,
-54,15,-118,-2,128,85,-78,23,-90,3,
-75,-45,127,-70,-59,-4,-121,-40,-47,-6,
-42,41,117,-7,-120,-77,-29,-8,-18,32,
128,-1,-120,-66,-99,-120,-122,-56,125,-24,
128,-3,119,4,-90,-90,-125,-43,127,0,
16,-7,-19,5,50,-33,-73,-24,44,6,
-54,-110,-121,127,-8,45,126,-26,45,-7,
-28,-36,-121,126,-80,125,127,-15,57,-15,
-9,56,-122,-116,-8,128,127,-12,86,-44,
36,-127,-122,127,-120,117,126,-24,20,-26,
120,-127,-119,127,-122,-28,127,-15,56,0,
118,-92,-120,127,-56,-69,127,-5,21,1,
96,128,-123,-31,-14,-3,127,-3,15,-1,
22,74,-122,88,-10,21,127,3,-93,-3,
-98,7,-64,77,-23,-37,128,-11,-85,-19,
108,52,122,42,125,-35,-112,-25,-19,-30,
122,-42,121,-5,128,-30,-123,-51,-11,-79,
-55,54,124,-13,-121,86,-72,50,-104,44,
-44,22,127,3,-109,18,29,20,-127,8,
-97,-25,128,-45,126,-124,-91,-20,-127,-4,
-3,23,-109,15,128,-50,128,30,-124,12,
100,76,86,92,68,91,128,83,17,58,
71,96,114,83,103,89,111,98,78,101,
54,59,127,54,116,123,127,33,124,126,
5,-5,45,9,59,125,83,-27,124,-43,
21,-4,84,8,70,-12,74,15,121,-60,
44,62,121,81,123,75,92,32,125,-27,
-69,8,127,22,120,39,101,18,101,-61,
-20,-11,128,-2,126,12,15,10,55,-13,
48,41,128,51,124,45,-108,48,65,39,
128,47,127,48,-14,59,-113,43,105,21,
128,67,128,50,-21,81,-96,63,128,37,
127,73,42,9,-13,85,-127,45,128,37,
126,72,-30,33,-2,40,-127,-27,127,-18,
-47,128,-101,51,-57,50,-126,-33,128,-35,
-45,128,-106,-100,-108,71,128,-38,127,-54,
16,120,-106,-101,1,30,128,-59,100,-55,
117,-127,-103,128,86,20,128,-18,53,-27,
128,-127,-104,128,79,-94,128,-92,15,-95,
124,-122,-99,128,13,-72,128,-67,-17,-81,
122,128,-72,23,-20,-23,128,-26,-45,-50,
26,128,-11,-44,-46,7,128,9,9,-39,
36,127,128,107,52,31,-125,33,53,16,
128,107,128,48,95,69,-126,62,112,66,
128,89,128,55,-1,92,-89,79,101,74,
89,88,127,49,-41,128,-69,124,77,105,
68,63,128,49,110,77,-104,31,15,55,
49,35,128,50,127,49,-114,21,-1,51,
-11,95,128,91,128,106,128,94,71,106,
48,106,128,120,127,126,128,66,112,125,
-33,-30,123,2,51,128,-8,-29,52,124,
-31,-60,125,-28,-24,102,64,-65,125,125,
